<?xml version="1.0" encoding="UTF-8"?>
<!-- This network was created in GeNIe Academic, which can be used for academic teaching and research purposes only -->
<smile version="1.0" id="Network2" numsamples="10000" discsamples="10000">
	<nodes>
		<cpt id="poziom_zaawansowania_uzytkownika">
			<state id="High" />
			<state id="Medium" />
			<state id="Low" />
			<probabilities>0.1 0.6 0.3</probabilities>
		</cpt>
		<cpt id="sila_typowania">
			<state id="slabe" />
			<state id="silne" />
			<parents>poziom_zaawansowania_uzytkownika</parents>
			<probabilities>0.15 0.85 0.2 0.8 0.05 0.95</probabilities>
		</cpt>
		<cpt id="dynamika_typowania">
			<state id="statyczne" />
			<state id="dynamiczne" />
			<parents>poziom_zaawansowania_uzytkownika</parents>
			<probabilities>0.8 0.2 0.7 0.3 0.25 0.75</probabilities>
		</cpt>
		<cpt id="paradygmat_obiektowy">
			<state id="Yes" />
			<state id="No" />
			<probabilities>0.9 0.09999999999999998</probabilities>
		</cpt>
		<cpt id="paradygmat_imperatywny">
			<state id="Yes" />
			<state id="No" />
			<probabilities>0.6 0.4</probabilities>
		</cpt>
		<cpt id="rodzaj_projektu">
			<state id="komercyjny" />
			<state id="open_source" />
			<probabilities>0.75 0.25</probabilities>
		</cpt>
		<cpt id="paradygmat_funkcyjny">
			<state id="Yes" />
			<state id="No" />
			<probabilities>0.35 0.65</probabilities>
		</cpt>
		<cpt id="obsluga_funkcji_sieciowych">
			<state id="Yes" />
			<state id="No" />
			<probabilities>0.9 0.09999999999999998</probabilities>
		</cpt>
		<cpt id="korzystanie_z_bazy_danych">
			<state id="Yes" />
			<state id="No" />
			<probabilities>0.8 0.2</probabilities>
		</cpt>
		<cpt id="stosowanie_metod_uczenia_maszynowego">
			<state id="Yes" />
			<state id="No" />
			<probabilities>0.4 0.6</probabilities>
		</cpt>
		<cpt id="planonowany_czas_prac">
			<state id="m1_m6" />
			<state id="m7_r1" />
			<state id="r1_r2" />
			<state id="r2_nd" />
			<probabilities>0.15 0.25 0.4 0.2</probabilities>
		</cpt>
		<cpt id="rozmiar_zespolu">
			<state id="max3" />
			<state id="from4_to6" />
			<state id="from7_to12" />
			<state id="min13" />
			<probabilities>0.1 0.3 0.55 0.04999999999999993</probabilities>
		</cpt>
		<cpt id="metodyka_projektowa">
			<state id="scrum" />
			<state id="extreme_prog" />
			<state id="waterfall" />
			<parents>planonowany_czas_prac rozmiar_zespolu</parents>
			<probabilities>0.01098901098901099 0.3846153846153846 0.6043956043956045 0.3529411764705882 0.588235294117647 0.05882352941176483 0.7058823529411764 0.2352941176470588 0.05882352941176472 0.875 0.1125 0.01249999999999996 0.03225806451612903 0.7526881720430108 0.2150537634408602 0.2 0.4666666666666666 0.3333333333333334 0.7058823529411764 0.2352941176470588 0.05882352941176472 0.8352941176470589 0.05882352941176471 0.1058823529411764 0.1111111111111111 0.6666666666666667 0.2222222222222221 0.8352941176470589 0.05882352941176471 0.1058823529411764 0.7058823529411764 0.2352941176470588 0.05882352941176472 0.9693877551020408 0.01020408163265306 0.02040816326530615 0.01098901098901099 0.3846153846153846 0.6043956043956045 0.3333333333333333 0.3333333333333333 0.3333333333333334 0.9849246231155778 0.01005025125628141 0.005025125628140725 0.9959758551307847 0.002012072434607646 0.002012072434607659</probabilities>
		</cpt>
		<cpt id="forma_finansowania">
			<state id="inwestor" />
			<state id="crowdfounding" />
			<state id="brak" />
			<probabilities>0.75 0.05 0.2</probabilities>
		</cpt>
		<cpt id="jezyk_programowania">
			<state id="java" />
			<state id="python" />
			<state id="c" />
			<state id="javascript" />
			<parents>dynamika_typowania sila_typowania paradygmat_obiektowy paradygmat_imperatywny paradygmat_funkcyjny</parents>
			<probabilities>0.3076923076923077 0.1538461538461539 0.2307692307692308 0.3076923076923077 0.25 0.25 0.3333333333333333 0.1666666666666667 0.2727272727272727 0.1818181818181818 0.1818181818181818 0.3636363636363636 0.2857142857142857 0.1428571428571428 0.1428571428571428 0.4285714285714286 0.2727272727272727 0.1818181818181818 0.3636363636363636 0.1818181818181819 0.2222222222222222 0.1111111111111111 0.5555555555555556 0.1111111111111112 0.2222222222222222 0.1111111111111111 0.3333333333333333 0.3333333333333334 0.1428571428571428 0 0.5714285714285714 0.2857142857142858 0.3846153846153846 0.3076923076923077 0.1538461538461539 0.1538461538461539 0.3636363636363636 0.2727272727272727 0.2727272727272727 0.09090909090909094 0.3636363636363636 0.2727272727272727 0.09090909090909091 0.2727272727272727 0.3333333333333333 0.2222222222222222 0.2222222222222222 0.2222222222222222 0.3636363636363636 0.2727272727272727 0.2727272727272727 0.09090909090909094 0.3333333333333333 0.2222222222222222 0.4444444444444444 0 0.3333333333333333 0.2222222222222222 0.2222222222222222 0.2222222222222222 0.2857142857142857 0.1428571428571428 0.4285714285714285 0.1428571428571429 0.2307692307692308 0.3076923076923077 0.1538461538461539 0.3076923076923076 0.1818181818181818 0.2727272727272727 0.2727272727272727 0.2727272727272727 0.1818181818181818 0.2727272727272727 0.09090909090909091 0.4545454545454546 0.1111111111111111 0.2222222222222222 0.2222222222222222 0.4444444444444444 0.1818181818181818 0.2727272727272727 0.2727272727272727 0.2727272727272727 0.1111111111111111 0.2222222222222222 0.4444444444444444 0.2222222222222223 0.1111111111111111 0.2222222222222222 0.2222222222222222 0.4444444444444444 0 0.1428571428571428 0.4285714285714285 0.4285714285714286 0.3076923076923077 0.3846153846153846 0.07692307692307693 0.2307692307692308 0.2727272727272727 0.3636363636363636 0.1818181818181818 0.1818181818181819 0.2727272727272727 0.3636363636363636 0 0.3636363636363636 0.2222222222222222 0.3333333333333333 0.1111111111111111 0.3333333333333333 0.2727272727272727 0.3636363636363636 0.1818181818181818 0.1818181818181819 0.2222222222222222 0.3333333333333333 0.3333333333333333 0.1111111111111112 0.2222222222222222 0.3333333333333333 0.1111111111111111 0.3333333333333333 0.1428571428571428 0.2857142857142857 0.2857142857142857 0.2857142857142858</probabilities>
		</cpt>
		<cpt id="srodowisko_programistyczne">
			<state id="Eclipse" />
			<state id="InteliJ" />
			<state id="Jupyter" />
			<state id="VSCode" />
			<state id="WebStorm" />
			<parents>jezyk_programowania rodzaj_projektu</parents>
			<probabilities>0.2142857142857143 0.3214285714285715 0.03571428571428571 0.2142857142857143 0.2142857142857143 0.2666666666666667 0.2333333333333333 0.2333333333333333 0.2 0.06666666666666665 0.1666666666666667 0.2 0.2 0.2333333333333333 0.2 0.2333333333333333 0.1333333333333333 0.3333333333333333 0.2333333333333333 0.06666666666666665 0.24 0.16 0.08 0.32 0.2 0.2608695652173913 0.08695652173913043 0.2608695652173913 0.3478260869565217 0.04347826086956519 0.2 0.24 0.04 0.12 0.4 0.1538461538461539 0.2307692307692308 0.2307692307692308 0.1538461538461539 0.2307692307692307</probabilities>
		</cpt>
		<cpt id="wysoka_skalowalnosc">
			<state id="Yes" />
			<state id="No" />
			<probabilities>0.6 0.4</probabilities>
		</cpt>
		<cpt id="GUI_dla_uzytkownika">
			<state id="Yes" />
			<state id="No" />
			<probabilities>0.3 0.7</probabilities>
		</cpt>
		<cpt id="dzialanie_na_urzadzeniu_o_ograniczonych_zasobach_sprzetowych">
			<state id="Yes" />
			<state id="No" />
			<probabilities>0.15 0.85</probabilities>
		</cpt>
		<cpt id="rodzaj_aplikacji">
			<state id="webowa" />
			<state id="system_ML" />
			<state id="desktopowa" />
			<state id="prototyp" />
			<state id="rozproszona" />
			<state id="system_wbudowany" />
			<parents>srodowisko_programistyczne wysoka_skalowalnosc obsluga_funkcji_sieciowych GUI_dla_uzytkownika dzialanie_na_urzadzeniu_o_ograniczonych_zasobach_sprzetowych korzystanie_z_bazy_danych stosowanie_metod_uczenia_maszynowego</parents>
			<probabilities>0.1904761904761902 0.2380952380952381 0.09523809523809523 0.1428571428571428 0.2857142857142857 0.04761904761904778 0.1904761904761905 0.09523809523809523 0.1428571428571428 0.2857142857142857 0.04761904761904762 0.2380952380952381 0.2380952380952381 0.09523809523809523 0.1428571428571428 0.04761904761904762 0.2857142857142857 0.1904761904761906 0.2380952380952381 0.09523809523809523 0.1428571428571428 0.1904761904761905 0.04761904761904762 0.2857142857142858 0.1904761904761905 0.2857142857142857 0.1428571428571428 0.2380952380952381 0.09523809523809523 0.04761904761904756 0.2380952380952381 0.2857142857142857 0.1904761904761905 0.09523809523809523 0.04761904761904762 0.142857142857143 0.04761904761904762 0.2380952380952381 0.1428571428571428 0.2857142857142857 0.1904761904761905 0.09523809523809534 0.1428571428571428 0.2857142857142857 0.04761904761904762 0.09523809523809523 0.2380952380952381 0.1904761904761905 0.1904761904761905 0.04761904761904762 0.2380952380952381 0.1428571428571428 0.09523809523809523 0.2857142857142857 0.1904761904761905 0.1428571428571428 0.09523809523809523 0.2857142857142857 0.04761904761904762 0.2380952380952381 0.1428571428571428 0.2380952380952381 0.1904761904761905 0.2857142857142857 0.09523809523809523 0.04761904761904767 0.2380952380952381 0.1904761904761905 0.2857142857142857 0.09523809523809523 0.1428571428571428 0.04761904761904767 0.2380952380952381 0.04761904761904762 0.09523809523809523 0.1904761904761905 0.2857142857142857 0.1428571428571429 0.2380952380952381 0.2857142857142857 0.04761904761904762 0.09523809523809523 0.1428571428571428 0.1904761904761905 0.2380952380952381 0.09523809523809523 0.2857142857142857 0.04761904761904762 0.1904761904761905 0.1428571428571428 0.2380952380952381 0.2857142857142857 0.1904761904761905 0.1428571428571428 0.04761904761904762 0.09523809523809534 0.2380952380952381 0.09523809523809523 0.04761904761904762 0.1428571428571428 0.2857142857142857 0.1904761904761906 0.2380952380952381 0.1428571428571428 0.04761904761904762 0.1904761904761905 0.2857142857142857 0.09523809523809523 0.2857142857142857 0.2380952380952381 0.04761904761904762 0.1428571428571428 0.09523809523809523 0.1904761904761906 0.04761904761904762 0.2857142857142857 0.1428571428571428 0.2380952380952381 0.09523809523809523 0.1904761904761906 0.09523809523809534 0.2857142857142857 0.1904761904761905 0.04761904761904762 0.2380952380952381 0.1428571428571428 0.04761904761904762 0.2857142857142857 0.09523809523809523 0.1904761904761905 0.2380952380952381 0.1428571428571428 0.2380952380952381 0.04761904761904762 0.2857142857142857 0.09523809523809523 0.1428571428571428 0.1904761904761905 0.1904761904761905 0.2380952380952381 0.1428571428571428 0.2857142857142857 0.09523809523809523 0.04761904761904767 0.1428571428571428 0.04761904761904762 0.1904761904761905 0.09523809523809523 0.2380952380952381 0.2857142857142858 0.09523809523809523 0.2380952380952381 0.1428571428571428 0.04761904761904762 0.1904761904761905 0.2857142857142858 0.1904761904761905 0.2380952380952381 0.1428571428571428 0.2857142857142857 0.04761904761904762 0.09523809523809534 0.07526881720430108 0.2580645161290323 0.1075268817204301 0.2580645161290323 0.1935483870967742 0.10752688172043 0.2555555555555555 0.07777777777777778 0.2666666666666667 0.1555555555555556 0.07777777777777778 0.1666666666666667 0.02597402597402598 0.2857142857142857 0.1948051948051948 0.2337662337662338 0.2467532467532468 0.01298701298701299 0.1914893617021277 0.2765957446808511 0.02127659574468085 0.3404255319148936 0.06382978723404255 0.1063829787234043 0.196969696969697 0.09090909090909091 0.1666666666666667 0.1363636363636364 0.1515151515151515 0.2575757575757577 0.15625 0.0625 0.21875 0.1875 0.171875 0.203125 0.1527777777777778 0.2916666666666667 0.09722222222222222 0.1388888888888889 0.1666666666666667 0.1527777777777778 0.07936507936507936 0.1746031746031746 0.1428571428571428 0.2698412698412698 0.2380952380952381 0.09523809523809534 0.1744186046511628 0.2674418604651163 0.2093023255813954 0.2325581395348837 0.06976744186046512 0.04651162790697672 0.2 0.03333333333333333 0.05 0.35 0.3333333333333333 0.03333333333333344 0.3157894736842105 0.1403508771929824 0.1052631578947368 0.03508771929824561 0.08771929824561403 0.3157894736842106 0.198019801980198 0.198019801980198 0.2178217821782178 0.0594059405940594 0.2376237623762376 0.08910891089108919 0.22 0.16 0.21 0.19 0.14 0.07999999999999996 0.02173913043478261 0.2173913043478261 0.08695652173913043 0.1521739130434783 0.4565217391304348 0.06521739130434789 0.03370786516853932 0.1685393258426966 0.1460674157303371 0.1685393258426966 0.247191011235955 0.2359550561797754 0.2537313432835821 0.2537313432835821 0.1791044776119403 0.07462686567164178 0.02985074626865672 0.2089552238805971 0.06557377049180328 0.08196721311475409 0.08196721311475409 0.180327868852459 0.2622950819672131 0.3278688524590163 0.21875 0.1979166666666667 0.2395833333333333 0.08333333333333333 0.01041666666666667 0.25 0.1866666666666667 0.04 0.2666666666666667 0.1733333333333333 0.1733333333333333 0.1599999999999999 0.2474226804123711 0.1855670103092784 0.1649484536082474 0.03092783505154639 0.1752577319587629 0.1958762886597938 0.07058823529411765 0.01176470588235294 0.2 0.2588235294117647 0.2705882352941176 0.1882352941176471 0.2923076923076923 0.2153846153846154 0.03076923076923077 0.06153846153846154 0.06153846153846154 0.3384615384615385 0.1904761904761905 0.2142857142857143 0.1904761904761905 0.02380952380952381 0.2142857142857143 0.1666666666666666 0.1584158415841584 0.1188118811881188 0.1881188118811881 0.2277227722772277 0.07920792079207921 0.2277227722772277 0.07894736842105263 0.2105263157894737 0.131578947368421 0.1447368421052632 0.1710526315789474 0.2631578947368421 0.4150943396226415 0.2641509433962264 0.1132075471698113 0.05660377358490566 0.09433962264150944 0.05660377358490565 0.3043478260869565 0.07246376811594203 0.1739130434782609 0.1014492753623188 0.1594202898550725 0.1884057971014492 0.1976744186046512 0.2558139534883721 0.1976744186046512 0.1162790697674419 0.1395348837209302 0.09302325581395343 0.2419354838709677 0.01612903225806452 0.3870967741935484 0.08064516129032258 0.1129032258064516 0.1612903225806451 0.2474226804123711 0.154639175257732 0.1958762886597938 0.1649484536082474 0.2268041237113402 0.01030927835051554 0.1228070175438596 0.2105263157894737 0.4035087719298245 0.1052631578947368 0.05263157894736842 0.1052631578947369 0.2533333333333334 0.1466666666666667 0.06666666666666667 0.1733333333333333 0.08 0.28 0.04444444444444445 0.4444444444444444 0.1555555555555556 0.08888888888888889 0.02222222222222222 0.2444444444444445 0.203125 0.03125 0.21875 0.375 0.03125 0.140625 0.1538461538461539 0.1538461538461539 0.0576923076923077 0.3461538461538461 0.1923076923076923 0.09615384615384615 0.1791044776119403 0.04477611940298507 0.1940298507462687 0.1343283582089552 0.2238805970149254 0.2238805970149254 0.06666666666666667 0.09333333333333334 0.12 0.28 0.2133333333333333 0.2266666666666666 0.2150537634408602 0.1397849462365591 0.08602150537634409 0.1290322580645161 0.1935483870967742 0.2365591397849462 0.1392405063291139 0.2151898734177215 0.2025316455696203 0.1772151898734177 0.1772151898734177 0.08860759493670889 0.05405405405405406 0.1216216216216216 0.2432432432432433 0.2972972972972973 0.2297297297297297 0.05405405405405406 0.3478260869565217 0.1304347826086956 0.02173913043478261 0.04347826086956522 0.1956521739130435 0.2608695652173914 0.2035398230088496 0.2123893805309734 0.1327433628318584 0.07079646017699115 0.168141592920354 0.2123893805309734 0.2769230769230769 0.2923076923076923 0.03076923076923077 0.3076923076923077 0.06153846153846154 0.03076923076923077 0.0119047619047619 0.04761904761904762 0.25 0.2261904761904762 0.2738095238095238 0.1904761904761905 0.03488372093023256 0.2093023255813954 0.04651162790697674 0.2674418604651163 0.2790697674418605 0.1627906976744187 0.1206896551724138 0.1982758620689655 0.1896551724137931 0.146551724137931 0.1810344827586207 0.1637931034482759 0.1153846153846154 0.1282051282051282 0.2564102564102564 0.01282051282051282 0.2564102564102564 0.2307692307692308 0.1136363636363636 0.2386363636363636 0.125 0.1704545454545454 0.09090909090909091 0.2613636363636364 0.07407407407407407 0.1358024691358025 0.2345679012345679 0.2716049382716049 0.2222222222222222 0.06172839506172845 0.2115384615384615 0.1730769230769231 0.2019230769230769 0.04807692307692308 0.1538461538461539 0.2115384615384616 0.1379310344827586 0.1839080459770115 0.2873563218390804 0.1149425287356322 0.2298850574712644 0.04597701149425282 0.3484848484848485 0.07575757575757576 0.1666666666666667 0.196969696969697 0.06060606060606061 0.1515151515151516 0.3617021276595745 0.1276595744680851 0.1914893617021277 0.1702127659574468 0.1276595744680851 0.02127659574468077 0.4528301886792453 0.1320754716981132 0.1886792452830189 0.01886792452830189 0.05660377358490566 0.1509433962264151 0.2560975609756098 0.1707317073170732 0.04878048780487805 0.2195121951219512 0.2804878048780488 0.02439024390243894 0.2702702702702703 0.1216216216216216 0.0945945945945946 0.2297297297297297 0.1081081081081081 0.1756756756756757 0.1797752808988764 0.1123595505617977 0.05617977528089887 0.2247191011235955 0.1460674157303371 0.2808988764044944 0.1881188118811881 0.2178217821782178 0.1584158415841584 0.1386138613861386 0.2376237623762376 0.05940594059405935 0.04444444444444445 0.02222222222222222 0.2666666666666667 0.2111111111111111 0.2333333333333333 0.2222222222222223 0.09090909090909091 0.03409090909090909 0.1931818181818182 0.2727272727272727 0.2840909090909091 0.125 0.1325301204819277 0.2289156626506024 0.02409638554216868 0.2530120481927711 0.08433734939759036 0.2771084337349399 0.2195121951219512 0.2073170731707317 0.2804878048780488 0.02439024390243903 0.01219512195121951 0.2560975609756098 0.1129032258064516 0.3387096774193548 0.01612903225806452 0.1935483870967742 0.08064516129032258 0.2580645161290323 0.2192982456140351 0.2105263157894737 0.1754385964912281 0.09649122807017543 0.131578947368421 0.1666666666666667 0.02409638554216868 0.0963855421686747 0.1686746987951807 0.2771084337349398 0.2650602409638554 0.1686746987951808 0.1323529411764706 0.1911764705882353 0.1176470588235294 0.1323529411764706 0.2058823529411765 0.2205882352941178 0.01724137931034483 0.01724137931034483 0.3103448275862069 0.05172413793103448 0.1896551724137931 0.4137931034482758 0.175 0.25 0.275 0.08749999999999999 0.125 0.08750000000000002 0.08064516129032258 0.2419354838709677 0.09677419354838709 0.4032258064516129 0.03225806451612903 0.1451612903225807 0.1136363636363636 0.2840909090909091 0.1363636363636364 0.04545454545454546 0.2159090909090909 0.2045454545454545 0.2826086956521739 0.2608695652173913 0.06521739130434782 0.1304347826086956 0.1956521739130435 0.06521739130434789 0.1851851851851852 0.04938271604938271 0.1604938271604938 0.1851851851851852 0.2098765432098765 0.2098765432098766 0.03703703703703703 0.2839506172839506 0.1851851851851852 0.1975308641975309 0.1481481481481481 0.1481481481481481 0.2073170731707317 0.2032520325203252 0.2032520325203252 0.1869918699186992 0.1016260162601626 0.09756097560975618 0.2436548223350254 0.1370558375634518 0.08629441624365482 0.1928934010152284 0.1218274111675127 0.2182741116751269 0.2486486486486487 0.05945945945945946 0.227027027027027 0.05945945945945946 0.1675675675675676 0.2378378378378376 0.09027777777777778 0.2638888888888889 0.05555555555555555 0.1736111111111111 0.2847222222222222 0.1319444444444445 0.2774193548387097 0.1161290322580645 0.06451612903225806 0.1419354838709677 0.2580645161290323 0.1419354838709678 0.1823204419889503 0.281767955801105 0.1602209944751381 0.2486187845303867 0.04972375690607735 0.07734806629834245 0.2011834319526627 0.1952662721893491 0.05325443786982249 0.02958579881656805 0.2130177514792899 0.3076923076923077 0.1308900523560209 0.1256544502617801 0.1256544502617801 0.2094240837696335 0.1727748691099476 0.2356020942408377 0.01829268292682927 0.25 0.3109756097560976 0.0426829268292683 0.2682926829268293 0.1097560975609755 0.3007518796992481 0.1954887218045113 0.2481203007518797 0.007518796992481203 0.09774436090225563 0.1503759398496241 0.1839622641509434 0.2452830188679245 0.169811320754717 0.2358490566037736 0.0660377358490566 0.09905660377358505 0.35 0.075 0.04166666666666666 0.1166666666666667 0.1 0.3166666666666667 0.2255639097744361 0.2631578947368421 0.2932330827067669 0.02255639097744361 0.1278195488721804 0.06766917293233088 0.3141025641025641 0.25 0.1217948717948718 0.2307692307692308 0.0641025641025641 0.01923076923076916 0.0583941605839416 0.218978102189781 0.0218978102189781 0.3211678832116788 0.0218978102189781 0.3576642335766423 0.1680672268907563 0.2436974789915966 0.09243697478991597 0.1260504201680672 0.3529411764705883 0.01680672268907557 0.04424778761061947 0.3008849557522124 0.2035398230088496 0.3451327433628318 0.05309734513274336 0.05309734513274333 0.1294117647058824 0.2176470588235294 0.07058823529411765 0.2823529411764706 0.2294117647058823 0.07058823529411773 0.2903225806451613 0.02580645161290323 0.2451612903225806 0.1161290322580645 0.01290322580645161 0.3096774193548387 0.3333333333333333 0.0425531914893617 0.1773049645390071 0.09219858156028368 0.1276595744680851 0.2269503546099291 0.2222222222222222 0.01388888888888889 0.2083333333333333 0.2777777777777778 0.05555555555555555 0.2222222222222222 0.08737864077669903 0.06796116504854369 0.01941747572815534 0.3009708737864077 0.3592233009708738 0.1650485436893204 0.2023346303501946 0.1206225680933852 0.2023346303501946 0.1828793774319066 0.1361867704280156 0.1556420233463035 0.3333333333333333 0.4054054054054054 0.05405405405405406 0.1531531531531531 0.009009009009009009 0.04504504504504503 0.1727272727272727 0.1954545454545455 0.1227272727272727 0.1227272727272727 0.2090909090909091 0.1772727272727272 0.05583756345177665 0.233502538071066 0.1878172588832487 0.1472081218274112 0.2487309644670051 0.1269035532994924 0.03947368421052631 0.1118421052631579 0.3223684210526316 0.0131578947368421 0.3355263157894737 0.1776315789473684 0.2014925373134328 0.07462686567164178 0.1492537313432836 0.2238805970149254 0.1194029850746269 0.2313432835820896 0.009259259259259259 0.2962962962962963 0.2777777777777778 0.3148148148148148 0.06481481481481481 0.03703703703703709 0.2442748091603053 0.1450381679389313 0.1221374045801527 0.1755725190839695 0.06106870229007633 0.251908396946565 0.01342281879194631 0.09395973154362416 0.08724832214765101 0.2483221476510067 0.3221476510067114 0.2348993288590604 0.1573033707865168 0.07303370786516854 0.2696629213483146 0.06741573033707865 0.1685393258426966 0.2640449438202248 0.05405405405405406 0.1513513513513514 0.1513513513513514 0.2216216216216216 0.1513513513513514 0.2702702702702702 0.3164556962025317 0.1329113924050633 0.2784810126582278 0.120253164556962 0.06962025316455696 0.08227848101265822 0.05970149253731343 0.2437810945273632 0.1691542288557214 0.2139303482587065 0.1691542288557214 0.1442786069651741 0.04516129032258064 0.2838709677419355 0.2580645161290323 0.05161290322580645 0.1290322580645161 0.232258064516129 0.2328042328042328 0.01587301587301587 0.1693121693121693 0.08465608465608465 0.2751322751322751 0.2222222222222223 0.1623931623931624 0.3076923076923077 0.1196581196581197 0.2222222222222222 0.1282051282051282 0.05982905982905984 0.1781609195402299 0.01149425287356322 0.264367816091954 0.2816091954022988 0.132183908045977 0.132183908045977 0.2027972027972028 0.1398601398601399 0.2167832167832168 0.2237762237762238 0.03496503496503497 0.1818181818181819 0.02649006622516556 0.2781456953642384 0.1456953642384106 0.06622516556291391 0.2119205298013245 0.2715231788079471 0.2573529411764706 0.08823529411764706 0.007352941176470588 0.3823529411764706 0.1911764705882353 0.07352941176470595 0.2469879518072289 0.04819277108433735 0.2590361445783133 0.05421686746987952 0.1144578313253012 0.2771084337349398 0.1504424778761062 0.4247787610619469 0.03539823008849557 0.05309734513274336 0.2389380530973451 0.09734513274336276 0.125748502994012 0.1317365269461078 0.04191616766467066 0.2514970059880239 0.2275449101796407 0.2215568862275449 0.1329479768786127 0.2312138728323699 0.2023121387283237 0.138728323699422 0.2890173410404624 0.005780346820809301 0.08433734939759036 0.1506024096385542 0.283132530120482 0.1265060240963855 0.1746987951807229 0.1807228915662651 0.1756756756756757 0.1081081081081081 0.1756756756756757 0.3445945945945946 0.1418918918918919 0.05405405405405417 0.1104294478527607 0.1411042944785276 0.1104294478527607 0.2024539877300613 0.2638036809815951 0.1717791411042944 0.1454545454545454 0.0303030303030303 0.2484848484848485 0.2121212121212121 0.2727272727272727 0.09090909090909094 0.07853403141361257 0.2460732984293194 0.2356020942408377 0.1465968586387434 0.1151832460732984 0.1780104712041886 0.2068965517241379 0.08620689655172414 0.1206896551724138 0.02298850574712644 0.2701149425287356 0.2931034482758621 0.2175925925925926 0.1898148148148148 0.06481481481481481 0.1574074074074074 0.1759259259259259 0.1944444444444444 0.05982905982905983 0.2905982905982906 0.1025641025641026 0.1452991452991453 0.3076923076923077 0.09401709401709391 0.03333333333333333 0.1733333333333333 0.04666666666666667 0.3 0.3 0.1466666666666667 0.2091836734693878 0.2602040816326531 0.08163265306122448 0.2091836734693878 0.1071428571428571 0.1326530612244897 0.1052631578947368 0.07368421052631578 0.3368421052631579 0.07368421052631578 0.2736842105263158 0.1368421052631579 0.2954545454545455 0.1875 0.05681818181818182 0.1704545454545454 0.1704545454545454 0.1193181818181819 0.1503759398496241 0.2406015037593985 0.1654135338345865 0.04511278195488722 0.3609022556390977 0.03759398496240607 0.04968944099378882 0.3043478260869565 0.2049689440993789 0.1614906832298137 0.2173913043478261 0.06211180124223614 0.217948717948718 0.00641025641025641 0.3333333333333333 0.1025641025641026 0.01923076923076923 0.3205128205128205 0.2547770700636943 0.09554140127388536 0.286624203821656 0.01910828025477707 0.03184713375796178 0.3121019108280254 0.3853211009174312 0.1926605504587156 0.1376146788990826 0.1743119266055046 0.1009174311926606 0.009174311926605228 0.1777777777777778 0.01481481481481482 0.2222222222222222 0.1851851851851852 0.1111111111111111 0.288888888888889 0.006369426751592357 0.2802547770700637 0.3248407643312102 0.03184713375796178 0.2993630573248408 0.0573248407643312 0.1212121212121212 0.1363636363636364 0.2348484848484849 0.1515151515151515 0.2196969696969697 0.1363636363636364 0.06790123456790123 0.06172839506172839 0.1728395061728395 0.2839506172839506 0.1481481481481481 0.2654320987654322 0.2337662337662338 0.1233766233766234 0.2987012987012987 0.07142857142857142 0.09090909090909091 0.1818181818181818 0.26 0.08 0.05333333333333334 0.08 0.2133333333333333 0.3133333333333332 0.1748633879781421 0.1693989071038251 0.2076502732240437 0.1530054644808743 0.2295081967213115 0.06557377049180335 0.15625 0.1145833333333333 0.0625 0.21875 0.09375 0.3541666666666667 0.2421052631578947 0.2210526315789474 0.1842105263157895 0.2105263157894737 0.03684210526315789 0.1052631578947368 0.1709844559585492 0.1243523316062176 0.2176165803108808 0.07253886010362694 0.2020725388601036 0.2124352331606216 0.1393034825870647 0.1890547263681592 0.2189054726368159 0.1940298507462687 0.1243781094527363 0.1343283582089553 0.2450980392156863 0.01470588235294118 0.2450980392156863 0.2450980392156863 0.07843137254901961 0.1715686274509804 0.01428571428571429 0.3071428571428572 0.1714285714285714 0.2357142857142857 0.1571428571428571 0.1142857142857142 0.3333333333333333 0.3148148148148148 0.01851851851851852 0.01851851851851852 0.2407407407407407 0.07407407407407418 0.07017543859649122 0.2631578947368421 0.01169590643274854 0.2807017543859649 0.2865497076023392 0.08771929824561409 0.2634730538922156 0.09580838323353294 0.1017964071856287 0.2215568862275449 0.3053892215568862 0.01197604790419149 0.08552631578947369 0.05263157894736842 0.02631578947368421 0.1776315789473684 0.3421052631578947 0.3157894736842106 0.1949685534591195 0.169811320754717 0.169811320754717 0.220125786163522 0.2075471698113208 0.03773584905660377 0.1549295774647887 0.1408450704225352 0.1830985915492958 0.1619718309859155 0.1267605633802817 0.232394366197183 0.3275862068965517 0.1896551724137931 0.1551724137931035 0.07758620689655173 0.05172413793103448 0.1982758620689656 0.3006134969325153 0.2392638036809816 0.05521472392638037 0.06134969325153374 0.1226993865030675 0.2208588957055215 0.2407407407407407 0.04629629629629629 0.3425925925925926 0.03703703703703703 0.1574074074074074 0.1759259259259258 0.2222222222222222 0.06018518518518518 0.2268518518518519 0.2268518518518519 0.1851851851851852 0.07870370370370372 0.1068376068376068 0.1581196581196581 0.1538461538461539 0.217948717948718 0.1752136752136752 0.188034188034188 0.07258064516129033 0.2338709677419355 0.04032258064516129 0.1209677419354839 0.2258064516129032 0.3064516129032258 0.1581196581196581 0.1282051282051282 0.1709401709401709 0.1367521367521368 0.2136752136752137 0.1923076923076923 0.1338028169014084 0.04225352112676056 0.1338028169014084 0.3098591549295774 0.1619718309859155 0.2183098591549296 0.02586206896551724 0.2155172413793103 0.3362068965517241 0.01724137931034483 0.08620689655172414 0.3189655172413792 0.1531531531531531 0.3153153153153153 0.0990990990990991 0.1621621621621622 0.009009009009009009 0.2612612612612613 0.1713147410358566 0.1593625498007968 0.1872509960159363 0.151394422310757 0.1713147410358566 0.1593625498007969 0.145 0.25 0.205 0.145 0.22 0.03500000000000003 0.07058823529411765 0.2705882352941176 0.2470588235294118 0.1529411764705882 0.2235294117647059 0.03529411764705881 0.1304347826086956 0.3229813664596273 0.2111801242236025 0.2608695652173913 0.02484472049689441 0.04968944099378869 0.4411764705882353 0.1372549019607843 0.02941176470588235 0.07843137254901961 0.0196078431372549 0.2941176470588235 0.09523809523809523 0.06122448979591837 0.1972789115646258 0.3197278911564626 0.2312925170068027 0.09523809523809512 0.02094240837696335 0.2460732984293194 0.1308900523560209 0.2722513089005236 0.06282722513089005 0.2670157068062827 0.2536231884057971 0.2028985507246377 0.1449275362318841 0.1594202898550725 0.05797101449275362 0.181159420289855 0.1204819277108434 0.1847389558232932 0.1927710843373494 0.144578313253012 0.1485943775100401 0.2088353413654619 0.1064814814814815 0.2222222222222222 0.1990740740740741 0.1111111111111111 0.212962962962963 0.1481481481481481 0.1551724137931035 0.02298850574712644 0.132183908045977 0.2471264367816092 0.1781609195402299 0.264367816091954 0.2802197802197802 0.1978021978021978 0.07142857142857142 0.1703296703296703 0.1483516483516484 0.131868131868132 0.03550295857988166 0.1715976331360947 0.2603550295857988 0.2662721893491125 0.2189349112426036 0.0473372781065089 0.06976744186046512 0.2558139534883721 0.01162790697674419 0.1976744186046512 0.2558139534883721 0.2093023255813953 0.423728813559322 0.1525423728813559 0.1610169491525424 0.0423728813559322 0.1610169491525424 0.05932203389830504 0.125 0.1923076923076923 0.2019230769230769 0.1153846153846154 0.2692307692307692 0.09615384615384626 0.2603550295857988 0.1775147928994083 0.1183431952662722 0.1834319526627219 0.1242603550295858 0.136094674556213 0.2 0.1117647058823529 0.02941176470588235 0.1294117647058824 0.3058823529411765 0.2235294117647059 0.208955223880597 0.3059701492537313 0.1641791044776119 0.1194029850746269 0.07462686567164178 0.126865671641791 0.1 0.1125 0.08749999999999999 0.1 0.5625 0.03749999999999998 0.186046511627907 0.3023255813953488 0.0755813953488372 0.1162790697674419 0.2267441860465116 0.09302325581395354 0.1875 0.125 0.09821428571428571 0.008928571428571428 0.2678571428571428 0.3125 0.2280701754385965 0.1403508771929824 0.02631578947368421 0.3157894736842105 0.07894736842105263 0.2105263157894737 0.1437125748502994 0.07784431137724551 0.311377245508982 0.2395209580838323 0.02395209580838323 0.2035928143712575 0.2117647058823529 0.08235294117647059 0.1411764705882353 0.2470588235294118 0.01176470588235294 0.3058823529411765 0.2461538461538462 0.1230769230769231 0.1692307692307692 0.1538461538461539 0.06666666666666667 0.2410256410256409 0.02580645161290323 0.01935483870967742 0.3096774193548387 0.2064516129032258 0.1483870967741935 0.2903225806451613 0.05172413793103448 0.2183908045977012 0.08620689655172414 0.2241379310344828 0.1436781609195402 0.2758620689655172 0.0119047619047619 0.2738095238095238 0.2321428571428572 0.04166666666666666 0.1964285714285714 0.2440476190476191 0.02040816326530612 0.2380952380952381 0.163265306122449 0.1564625850340136 0.217687074829932 0.2040816326530612 0.1209677419354839 0.1774193548387097 0.07258064516129033 0.01612903225806452 0.3951612903225806 0.217741935483871 0.1401273885350318 0.2101910828025478 0.2292993630573248 0.08280254777070063 0.2420382165605096 0.09554140127388533 0.02314814814814815 0.1666666666666667 0.162037037037037 0.2268518518518519 0.1898148148148148 0.2314814814814814 0.1472868217054264 0.2015503875968992 0.007751937984496124 0.2170542635658915 0.09302325581395349 0.3333333333333333 0.175609756097561 0.2292682926829268 0.1560975609756098 0.1219512195121951 0.2097560975609756 0.1073170731707317 0.2530864197530864 0.06172839506172839 0.2469135802469136 0.01851851851851852 0.2160493827160494 0.2037037037037037 0.4326923076923077 0.1634615384615385 0.2596153846153846 0.0576923076923077 0.0673076923076923 0.01923076923076916 0.1495327102803738 0.07476635514018691 0.3551401869158878 0.102803738317757 0.04672897196261682 0.2710280373831776 0.1284916201117318 0.1396648044692737 0.2793296089385475 0.2793296089385475 0.1229050279329609 0.05027932960893855 0.2828947368421053 0.1381578947368421 0.1710526315789474 0.2894736842105263 0.1118421052631579 0.006578947368421129 0.25 0.3071428571428572 0.05714285714285714 0.02857142857142857 0.2214285714285714 0.1357142857142857 0.09578544061302682 0.1494252873563219 0.1877394636015326 0.1839080459770115 0.1839080459770115 0.1992337164750958 0.06707317073170732 0.2073170731707317 0.1524390243902439 0.3170731707317073 0.1768292682926829 0.0792682926829269 0.2030456852791878 0.1421319796954315 0.1878172588832487 0.1928934010152284 0.04060913705583756 0.2335025380710659 0.05813953488372093 0.2790697674418605 0.09883720930232558 0.2674418604651163 0.1162790697674419 0.180232558139535 0.2447916666666667 0.21875 0.1197916666666667 0.07291666666666667 0.078125 0.2656250000000001 0.2513661202185792 0.1693989071038251 0.2295081967213115 0.2021857923497268 0.03278688524590164 0.1147540983606556 0.5098039215686274 0.05882352941176471 0.05882352941176471 0.2352941176470588 0.02941176470588235 0.1078431372549019 0.2441860465116279 0.2906976744186047 0.2383720930232558 0.05813953488372093 0.1395348837209302 0.02906976744186041 0.05035971223021583 0.2302158273381295 0.07194244604316546 0.3669064748201439 0.1942446043165468 0.08633093525179858 0.1831683168316832 0.2227722772277228 0.2128712871287129 0.1633663366336634 0.009900990099009901 0.2079207920792079 0.1348837209302326 0.2372093023255814 0.1581395348837209 0.1906976744186047 0.1953488372093023 0.08372093023255822 0.1140939597315436 0.2483221476510067 0.302013422818792 0.1208053691275168 0.1208053691275168 0.09395973154362403 0.1896551724137931 0.2298850574712644 0.1781609195402299 0.1091954022988506 0.06321839080459771 0.2298850574712644 0.08771929824561403 0.1184210526315789 0.2236842105263158 0.1885964912280702 0.2192982456140351 0.1622807017543859 0.2198581560283688 0.1063829787234043 0.1276595744680851 0.3333333333333333 0.1843971631205674 0.02836879432624118 0.2689655172413793 0.01379310344827586 0.1103448275862069 0.06206896551724138 0.3517241379310345 0.193103448275862 0.1475409836065574 0.06557377049180328 0.2568306010928962 0.09289617486338798 0.1967213114754098 0.2404371584699453 0.2615384615384616 0.05641025641025641 0.1435897435897436 0.1333333333333333 0.241025641025641 0.1641025641025641 0.01063829787234043 0.01063829787234043 0.0425531914893617 0.3723404255319149 0.148936170212766 0.4148936170212767 0.1938775510204082 0.02551020408163265 0.2346938775510204 0.2142857142857143 0.2040816326530612 0.1275510204081632 0.3333333333333333 0.0272108843537415 0.09523809523809523 0.1020408163265306 0.108843537414966 0.3333333333333334 0.1714285714285714 0.28 0.1657142857142857 0.1542857142857143 0.1942857142857143 0.03428571428571425 0.08641975308641975 0.1419753086419753 0.1851851851851852 0.1790123456790123 0.2839506172839506 0.1234567901234569 0.09090909090909091 0.2121212121212121 0.2954545454545455 0.06060606060606061 0.09090909090909091 0.2499999999999999 0.1701030927835052 0.2164948453608248 0.01030927835051546 0.211340206185567 0.2010309278350516 0.1907216494845361 0.03401360544217687 0.06122448979591837 0.1428571428571428 0.272108843537415 0.217687074829932 0.2721088435374149 0.08854166666666667 0.25 0.2135416666666667 0.2291666666666667 0.15625 0.0625 0.2404371584699453 0.1420765027322404 0.09836065573770492 0.1366120218579235 0.2677595628415301 0.1147540983606556 0.2541436464088398 0.2541436464088398 0.1215469613259668 0.1933701657458564 0.1546961325966851 0.0220994475138121 0.01428571428571429 0.3714285714285714 0.05714285714285714 0.1142857142857143 0.1857142857142857 0.2571428571428571 0.1636363636363636 0.1090909090909091 0.4090909090909091 0.01818181818181818 0.03636363636363636 0.2636363636363636 0.2689655172413793 0.1103448275862069 0.0896551724137931 0.1862068965517241 0.2275862068965517 0.1172413793103448 0.1098901098901099 0.03296703296703297 0.06593406593406594 0.2362637362637363 0.2857142857142857 0.2692307692307693 0.1529411764705882 0.1588235294117647 0.2470588235294118 0.2764705882352941 0.03529411764705882 0.1294117647058823 0.0975609756097561 0.1951219512195122 0.3109756097560976 0.06097560975609756 0.2134146341463415 0.121951219512195 0.1818181818181818 0.2392344497607655 0.02392344497607655 0.2440191387559809 0.1291866028708134 0.1818181818181818 0.1 0.1933333333333333 0.1933333333333333 0.1133333333333333 0.3333333333333333 0.06666666666666665 0.256198347107438 0.1239669421487603 0.1570247933884298 0.1487603305785124 0.02479338842975207 0.2892561983471075 0.1412429378531073 0.2146892655367232 0.2090395480225989 0.2937853107344633 0.1355932203389831 0.005649717514124242 0.1699029126213592 0.2378640776699029 0.1116504854368932 0.1796116504854369 0.1116504854368932 0.1893203883495145 0.02 0.225 0.245 0.225 0.045 0.24 0.2826086956521739 0.09782608695652174 0.1847826086956522 0.1195652173913044 0.2173913043478261 0.09782608695652184 0.2283464566929134 0.2440944881889764 0.2125984251968504 0.1574803149606299 0.007874015748031496 0.1496062992125984 0.3488372093023256 0.1007751937984496 0.06976744186046512 0.2403100775193799 0.124031007751938 0.1162790697674418 0.3559322033898305 0.2796610169491525 0.0847457627118644 0.05084745762711865 0.09322033898305085 0.1355932203389831 0.1764705882352941 0.1176470588235294 0.03361344537815126 0.2689075630252101 0.3865546218487395 0.01680672268907557 0.412280701754386 0.01754385964912281 0.02631578947368421 0.3333333333333333 0.1140350877192982 0.09649122807017541 0.1654676258992806 0.1798561151079137 0.1151079136690648 0.1726618705035971 0.1798561151079137 0.1870503597122303 0.05681818181818182 0.2897727272727273 0.09659090909090909 0.04545454545454546 0.2727272727272727 0.2386363636363635 0.3167701863354037 0.2111801242236025 0.08695652173913043 0.006211180124223602 0.1055900621118012 0.2732919254658386 0.1244444444444444 0.1733333333333333 0.1333333333333333 0.2044444444444445 0.1377777777777778 0.2266666666666667 0.1494252873563219 0.03448275862068965 0.2298850574712644 0.2413793103448276 0.05747126436781609 0.2873563218390804 0.247191011235955 0.247191011235955 0.01123595505617977 0.1460674157303371 0.247191011235955 0.101123595505618 0.1237113402061856 0.154639175257732 0.2371134020618557 0.2010309278350516 0.05154639175257732 0.231958762886598 0.1935483870967742 0.2311827956989247 0.2795698924731183 0.1236559139784946 0.1559139784946237 0.01612903225806461 0.07317073170731707 0.0975609756097561 0.07317073170731707 0.5121951219512195 0.1829268292682927 0.06097560975609762 0.1111111111111111 0.03968253968253968 0.3968253968253968 0.2857142857142857 0.1111111111111111 0.05555555555555558 0.06666666666666667 0.008333333333333333 0.3666666666666666 0.075 0.06666666666666667 0.4166666666666667 0.05555555555555555 0.2777777777777778 0.2222222222222222 0.09523809523809523 0.1587301587301587 0.1904761904761905 0.1073446327683616 0.03954802259887006 0.2429378531073446 0.2768361581920904 0.1016949152542373 0.231638418079096 0.2574850299401197 0.1377245508982036 0.2095808383233533 0.04191616766467066 0.04191616766467066 0.311377245508982 0.2168141592920354 0.1814159292035398 0.168141592920354 0.1460176991150443 0.168141592920354 0.1194690265486725 0.2173913043478261 0.2898550724637681 0.108695652173913 0.03623188405797102 0.3043478260869565 0.04347826086956508 0.3157894736842105 0.2894736842105263 0.1644736842105263 0.01973684210526316 0.125 0.08552631578947367 0.2777777777777778 0.02222222222222222 0.2611111111111111 0.02222222222222222 0.2444444444444444 0.1722222222222222 0.1658536585365854 0.09268292682926829 0.1951219512195122 0.1365853658536585 0.1804878048780488 0.2292682926829268 0.1980676328502415 0.0966183574879227 0.1545893719806763 0.1256038647342995 0.2173913043478261 0.2077294685990339 0.223463687150838 0.1340782122905028 0.1731843575418995 0.06145251396648044 0.2402234636871508 0.1675977653631285 0.05454545454545454 0.2181818181818182 0.04242424242424243 0.1818181818181818 0.3090909090909091 0.193939393939394 0.2356687898089172 0.06369426751592357 0.1528662420382166 0.3184713375796178 0.01273885350318471 0.2165605095541401 0.1787709497206704 0.2067039106145251 0.06145251396648044 0.1620111731843575 0.2625698324022346 0.1284916201117319 0.006944444444444444 0.3263888888888889 0.2291666666666667 0.09722222222222222 0.1458333333333333 0.1944444444444444 0.07971014492753623 0.1231884057971015 0.2608695652173913 0.1376811594202899 0.2971014492753623 0.1014492753623188 0.1578947368421053 0.1228070175438596 0.152046783625731 0.08771929824561403 0.2105263157894737 0.2690058479532165 0.02173913043478261 0.07971014492753623 0.3478260869565217 0.2463768115942029 0.2463768115942029 0.05797101449275366 0.4285714285714285 0.3928571428571428 0.07142857142857142 0 0.03571428571428571 0.07142857142857151 0.16 0.18 0.14 0.18 0.2 0.1400000000000001 0.08823529411764706 0.3529411764705883 0.1176470588235294 0.2058823529411765 0.08823529411764706 0.1470588235294118 0.1891891891891892 0.05405405405405406 0.3243243243243243 0.02702702702702703 0.1621621621621622 0.2432432432432433 0.2 0.02 0.18 0.12 0.24 0.24 0.2647058823529412 0.08823529411764706 0.3235294117647059 0.1470588235294118 0.1470588235294118 0.02941176470588225 0.119047619047619 0.1428571428571428 0.2380952380952381 0.09523809523809523 0.1666666666666667 0.2380952380952382 0.02941176470588235 0.1470588235294118 0.1470588235294118 0.2352941176470588 0.1176470588235294 0.3235294117647058 0.1176470588235294 0.1176470588235294 0.02941176470588235 0.3235294117647059 0.2352941176470588 0.1764705882352942 0.2340425531914894 0.148936170212766 0.06382978723404255 0.2553191489361702 0.2340425531914894 0.06382978723404253 0.07407407407407407 0.3703703703703703 0.2222222222222222 0.1111111111111111 0.07407407407407407 0.1481481481481483 0.1463414634146341 0.1951219512195122 0.1951219512195122 0.04878048780487805 0.2195121951219512 0.1951219512195121</probabilities>
		</cpt>
		<cpt id="ukonczenie_projektu">
			<state id="Yes" />
			<state id="No" />
			<parents>metodyka_projektowa forma_finansowania rodzaj_aplikacji</parents>
			<probabilities>0.3396226415094339 0.6603773584905661 0.8333333333333334 0.1666666666666666 0.46875 0.53125 0.5686274509803921 0.4313725490196079 0.5054945054945055 0.4945054945054945 0.1551724137931035 0.8448275862068966 0.8461538461538461 0.1538461538461539 0.6438356164383562 0.3561643835616438 0.6470588235294118 0.3529411764705882 0.6764705882352942 0.3235294117647058 0.6461538461538462 0.3538461538461538 0.62 0.38 0.8431372549019608 0.1568627450980392 0.5 0.5 0.6129032258064516 0.3870967741935484 0.5970149253731343 0.4029850746268657 0.8333333333333334 0.1666666666666666 0.3648648648648649 0.6351351351351351 0.6666666666666666 0.3333333333333334 0.85 0.15 0.6491228070175439 0.3508771929824561 0.5647058823529412 0.4352941176470588 0.392156862745098 0.607843137254902 0.8627450980392157 0.1372549019607843 0.6410256410256411 0.3589743589743589 0.35 0.65 0.2857142857142857 0.7142857142857143 0.4827586206896552 0.5172413793103448 0.6612903225806451 0.3387096774193549 0.1428571428571428 0.8571428571428572 0.3333333333333333 0.6666666666666667 0.5384615384615384 0.4615384615384616 0.24 0.76 0.5671641791044776 0.4328358208955224 0.5217391304347826 0.4782608695652174 0.7954545454545454 0.2045454545454546 0.3333333333333333 0.6666666666666667 0.7083333333333334 0.2916666666666666 0.4210526315789473 0.5789473684210527 0.103448275862069 0.896551724137931 0.7142857142857143 0.2857142857142857 0.72 0.28 0.5 0.5 0.4761904761904762 0.5238095238095238 0.8333333333333334 0.1666666666666666 0.9 0.09999999999999998 0.1666666666666667 0.8333333333333334 0.3333333333333333 0.6666666666666667 0.5185185185185185 0.4814814814814815 0.06666666666666667 0.9333333333333333 0.5714285714285714 0.4285714285714286 0.4642857142857143 0.5357142857142857 0.2 0.8 0.5 0.5</probabilities>
		</cpt>
		<cpt id="przekroczenie_budzetu">
			<state id="Yes" />
			<state id="No" />
			<parents>metodyka_projektowa forma_finansowania rodzaj_aplikacji</parents>
			<probabilities>0.625 0.375 0.3333333333333333 0.6666666666666667 0.775 0.225 0.4883720930232558 0.5116279069767442 0.3469387755102041 0.653061224489796 0.8666666666666667 0.1333333333333333 0.1951219512195122 0.8048780487804879 0.1333333333333333 0.8666666666666667 0.6976744186046512 0.3023255813953488 0.5757575757575758 0.4242424242424242 0.5405405405405406 0.4594594594594594 0.3396226415094339 0.6603773584905661 0.6923076923076923 0.3076923076923077 0.5072463768115942 0.4927536231884058 0.5945945945945946 0.4054054054054054 0.5789473684210527 0.4210526315789473 0.5833333333333334 0.4166666666666666 0.1 0.9 0.3888888888888889 0.6111111111111112 0.7857142857142857 0.2142857142857143 0.2380952380952381 0.7619047619047619 0.9696969696969697 0.03030303030303028 0.1935483870967742 0.8064516129032258 0.8571428571428571 0.1428571428571429 0.7058823529411765 0.2941176470588235 0.2173913043478261 0.7826086956521739 0.8181818181818182 0.1818181818181818 0.4727272727272727 0.5272727272727273 0.4833333333333333 0.5166666666666666 0.5833333333333334 0.4166666666666666 0.53125 0.46875 0.6956521739130435 0.3043478260869565 0.2432432432432433 0.7567567567567568 0.46 0.54 0.04545454545454546 0.9545454545454546 0.5208333333333334 0.4791666666666666 0.5 0.5 0.6153846153846154 0.3846153846153846 0.5652173913043478 0.4347826086956522 0.4 0.6 0.4838709677419355 0.5161290322580645 0.6666666666666666 0.3333333333333334 0.64 0.36 0.5483870967741935 0.4516129032258065 0.7777777777777778 0.2222222222222222 0.4137931034482759 0.5862068965517242 0.2142857142857143 0.7857142857142857 0.375 0.625 0.7857142857142857 0.2142857142857143 0.5806451612903226 0.4193548387096774 0.1428571428571428 0.8571428571428572 0.3571428571428572 0.6428571428571428 0.4285714285714285 0.5714285714285714 0.5555555555555556 0.4444444444444444</probabilities>
		</cpt>
		<cpt id="wydluzenie_czasu_prac">
			<state id="Yes" />
			<state id="No" />
			<parents>metodyka_projektowa forma_finansowania rodzaj_aplikacji</parents>
			<probabilities>0.5 0.5 0.4615384615384616 0.5384615384615384 0.7222222222222222 0.2777777777777778 0.1176470588235294 0.8823529411764706 0.546875 0.453125 0.696969696969697 0.303030303030303 0.8461538461538461 0.1538461538461539 0.5076923076923077 0.4923076923076923 0.3125 0.6875 0.4186046511627907 0.5813953488372092 0.5714285714285714 0.4285714285714286 0.3928571428571428 0.6071428571428572 0.4375 0.5625 0.3888888888888889 0.6111111111111112 0.4347826086956522 0.5652173913043479 0.3333333333333333 0.6666666666666667 0.3518518518518519 0.6481481481481481 0.8108108108108109 0.1891891891891891 0.4915254237288136 0.5084745762711864 0.509090909090909 0.490909090909091 0.5961538461538461 0.4038461538461539 0.375 0.625 0.34 0.6599999999999999 0.3260869565217391 0.6739130434782609 0.15 0.85 0.5862068965517241 0.4137931034482759 0.8571428571428571 0.1428571428571429 0.5818181818181818 0.4181818181818182 0.75 0.25 0.4571428571428571 0.5428571428571429 0.6585365853658537 0.3414634146341463 0.6923076923076923 0.3076923076923077 0.8064516129032258 0.1935483870967742 0.625 0.375 0.4285714285714285 0.5714285714285714 0.1818181818181818 0.8181818181818181 0.2 0.8 0.5625 0.4375 0.2105263157894737 0.7894736842105263 0.625 0.375 0.4615384615384616 0.5384615384615384 0.8888888888888888 0.1111111111111112 0.5 0.5 0.2142857142857143 0.7857142857142857 0.375 0.625 0.7 0.3 0.25 0.75 0.2941176470588235 0.7058823529411764 0.4583333333333333 0.5416666666666667 0.4375 0.5625 0.5 0.5 0.6666666666666666 0.3333333333333334 0.6190476190476191 0.3809523809523809 0.3333333333333333 0.6666666666666667</probabilities>
		</cpt>
	</nodes>
	<extensions>
		<genie version="1.0" app="GeNIe 3.0.5905.0 ACADEMIC" name="stachura_doleglo_it_project_advisor">
			<node id="paradygmat_obiektowy">
				<name>paradygmat obiektowy</name>
				<interior color="ffff99" />
				<outline color="000080" />
				<font color="000000" name="Arial" size="8" />
				<position>886 188 968 239</position>
			</node>
			<node id="paradygmat_funkcyjny">
				<name>paradygmat funkcyjny</name>
				<interior color="ffff99" />
				<outline color="000080" />
				<font color="000000" name="Arial" size="8" />
				<position>1108 183 1190 234</position>
			</node>
			<node id="paradygmat_imperatywny">
				<name>paradygmat imperatywny</name>
				<interior color="ffff99" />
				<outline color="000080" />
				<font color="000000" name="Arial" size="8" />
				<position>994 182 1081 236</position>
			</node>
			<node id="dynamika_typowania">
				<name>dynamika typowania</name>
				<interior color="99ccff" />
				<outline color="000080" />
				<font color="000000" name="Arial" size="8" />
				<position>587 174 695 241</position>
			</node>
			<node id="sila_typowania">
				<name>sila typowania</name>
				<interior color="99ccff" />
				<outline color="000080" />
				<font color="000000" name="Arial" size="8" />
				<position>763 185 845 236</position>
			</node>
			<node id="poziom_zaawansowania_uzytkownika">
				<name>poziom zaawansowania uzytkownika</name>
				<interior color="ffff99" />
				<outline color="000080" />
				<font color="000000" name="Arial" size="8" />
				<position>666 41 782 113</position>
			</node>
			<node id="planonowany_czas_prac">
				<name>planonowany czas prac</name>
				<interior color="ffff99" />
				<outline color="000080" />
				<font color="000000" name="Arial" size="8" />
				<position>293 182 383 238</position>
			</node>
			<node id="rozmiar_zespolu">
				<name>rozmiar zespolu</name>
				<interior color="ffff99" />
				<outline color="000080" />
				<font color="000000" name="Arial" size="8" />
				<position>433 182 521 237</position>
			</node>
			<node id="jezyk_programowania">
				<name>jezyk programowania</name>
				<interior color="99ccff" />
				<outline color="000080" />
				<font color="000000" name="Arial" size="8" />
				<position>839 323 937 384</position>
			</node>
			<node id="rodzaj_projektu">
				<name>rodzaj projektu</name>
				<interior color="ffff99" />
				<outline color="000080" />
				<font color="000000" name="Arial" size="8" />
				<position>575 324 657 375</position>
			</node>
			<node id="obsluga_funkcji_sieciowych">
				<name>obsluga funkcji sieciowych</name>
				<interior color="ffff99" />
				<outline color="000080" />
				<font color="000000" name="Arial" size="8" />
				<position>1124 590 1222 651</position>
			</node>
			<node id="korzystanie_z_bazy_danych">
				<name>korzystanie z bazy danych</name>
				<interior color="ffff99" />
				<outline color="000080" />
				<font color="000000" name="Arial" size="8" />
				<position>968 458 1066 519</position>
			</node>
			<node id="stosowanie_metod_uczenia_maszynowego">
				<name>stosowanie metod uczenia maszynowego</name>
				<interior color="ffff99" />
				<outline color="000080" />
				<font color="000000" name="Arial" size="8" />
				<position>1033 518 1142 586</position>
			</node>
			<node id="GUI_dla_uzytkownika">
				<name>GUI dla uzytkownika</name>
				<interior color="ffff99" />
				<outline color="000080" />
				<font color="000000" name="Arial" size="8" />
				<position>1200 531 1308 598</position>
			</node>
			<node id="wysoka_skalowalnosc">
				<name>wysoka skalowalnosc</name>
				<interior color="ffff99" />
				<outline color="000080" />
				<font color="000000" name="Arial" size="8" />
				<position>956 374 1062 440</position>
			</node>
			<node id="dzialanie_na_urzadzeniu_o_ograniczonych_zasobach_sprzetowych">
				<name>dzialanie na urzadzeniu o ograniczonych zasobach sprzetowych</name>
				<interior color="ffff99" />
				<outline color="000080" />
				<font color="000000" name="Arial" size="8" />
				<position>1082 421 1226 511</position>
			</node>
			<node id="metodyka_projektowa">
				<name>metodyka projektowa</name>
				<interior color="99ccff" />
				<outline color="000080" />
				<font color="000000" name="Arial" size="8" />
				<position>373 314 453 364</position>
			</node>
			<node id="ukonczenie_projektu">
				<name>ukonczenie projektu</name>
				<interior color="ff6600" />
				<outline color="000080" />
				<font color="000000" name="Arial" size="8" />
				<position>675 727 781 793</position>
			</node>
			<node id="przekroczenie_budzetu">
				<name>przekroczenie budzetu</name>
				<interior color="ff6600" />
				<outline color="000080" />
				<font color="000000" name="Arial" size="8" />
				<position>547 731 638 787</position>
			</node>
			<node id="wydluzenie_czasu_prac">
				<name>wydluzenie czasu prac</name>
				<interior color="ff6600" />
				<outline color="000080" />
				<font color="000000" name="Arial" size="8" />
				<position>413 733 498 786</position>
			</node>
			<node id="forma_finansowania">
				<name>forma finansowania</name>
				<interior color="ffff99" />
				<outline color="000080" />
				<font color="000000" name="Arial" size="8" />
				<position>285 442 391 508</position>
			</node>
			<node id="srodowisko_programistyczne">
				<name>srodowisko programistyczne</name>
				<interior color="99ccff" />
				<outline color="000080" />
				<font color="000000" name="Arial" size="8" />
				<position>716 441 817 504</position>
			</node>
			<node id="rodzaj_aplikacji">
				<name>rodzaj aplikacji</name>
				<interior color="ffcc99" />
				<outline color="000080" />
				<font color="000000" name="Arial" size="8" />
				<position>794 606 876 657</position>
			</node>
		</genie>
	</extensions>
</smile>
